digraph Tree {
node [shape=box, style="filled, rounded", color="black", fontname=helvetica] ;
edge [fontname=helvetica] ;
0 [label="X[1] <= 44.5\ngini = 0.37\nsamples = 15556\nvalue = [11746, 3810]", fillcolor="#edaa79"] ;
1 [label="X[0] <= 9.5\ngini = 0.5\nsamples = 3836\nvalue = [1857, 1979]", fillcolor="#f3f9fd"] ;
0 -> 1 [labeldistance=2.5, labelangle=45, headlabel="True"] ;
2 [label="X[1] <= 39.5\ngini = 0.47\nsamples = 2256\nvalue = [1385, 871]", fillcolor="#f5d0b6"] ;
1 -> 2 ;
3 [label="X[0] <= 6.5\ngini = 0.5\nsamples = 1390\nvalue = [762, 628]", fillcolor="#fae9dc"] ;
2 -> 3 ;
4 [label="gini = 0.45\nsamples = 426\nvalue = [277, 149]", fillcolor="#f3c5a4"] ;
3 -> 4 ;
5 [label="gini = 0.5\nsamples = 964\nvalue = [485, 479]", fillcolor="#fffdfd"] ;
3 -> 5 ;
6 [label="X[3] <= 2221.44\ngini = 0.4\nsamples = 866\nvalue = [623, 243]", fillcolor="#efb286"] ;
2 -> 6 ;
7 [label="gini = 0.43\nsamples = 620\nvalue = [424, 196]", fillcolor="#f1bb95"] ;
6 -> 7 ;
8 [label="gini = 0.31\nsamples = 246\nvalue = [199, 47]", fillcolor="#eb9f68"] ;
6 -> 8 ;
9 [label="X[0] <= 14.5\ngini = 0.42\nsamples = 1580\nvalue = [472, 1108]", fillcolor="#8dc7f0"] ;
1 -> 9 ;
10 [label="X[1] <= 39.5\ngini = 0.46\nsamples = 1225\nvalue = [442, 783]", fillcolor="#a9d4f4"] ;
9 -> 10 ;
11 [label="gini = 0.41\nsamples = 775\nvalue = [226, 549]", fillcolor="#8bc5f0"] ;
10 -> 11 ;
12 [label="gini = 0.5\nsamples = 450\nvalue = [216, 234]", fillcolor="#f0f7fd"] ;
10 -> 12 ;
13 [label="X[0] <= 18.5\ngini = 0.15\nsamples = 355\nvalue = [30, 325]", fillcolor="#4ba6e7"] ;
9 -> 13 ;
14 [label="gini = 0.21\nsamples = 249\nvalue = [30, 219]", fillcolor="#54aae9"] ;
13 -> 14 ;
15 [label="gini = 0.0\nsamples = 106\nvalue = [0, 106]", fillcolor="#399de5"] ;
13 -> 15 ;
16 [label="X[0] <= 12.5\ngini = 0.26\nsamples = 11720\nvalue = [9889, 1831]", fillcolor="#ea985e"] ;
0 -> 16 [labeldistance=2.5, labelangle=-45, headlabel="False"] ;
17 [label="X[0] <= 8.36\ngini = 0.22\nsamples = 10597\nvalue = [9271, 1326]", fillcolor="#e99355"] ;
16 -> 17 ;
18 [label="X[0] <= 5.5\ngini = 0.15\nsamples = 6000\nvalue = [5509, 491]", fillcolor="#e78c4b"] ;
17 -> 18 ;
19 [label="gini = 0.1\nsamples = 1900\nvalue = [1803, 97]", fillcolor="#e68844"] ;
18 -> 19 ;
20 [label="gini = 0.17\nsamples = 4100\nvalue = [3706, 394]", fillcolor="#e88e4e"] ;
18 -> 20 ;
21 [label="X[0] <= 10.5\ngini = 0.3\nsamples = 4597\nvalue = [3762, 835]", fillcolor="#eb9d65"] ;
17 -> 21 ;
22 [label="gini = 0.27\nsamples = 3068\nvalue = [2576, 492]", fillcolor="#ea995f"] ;
21 -> 22 ;
23 [label="gini = 0.35\nsamples = 1529\nvalue = [1186, 343]", fillcolor="#eda572"] ;
21 -> 23 ;
24 [label="X[0] <= 17.5\ngini = 0.49\nsamples = 1123\nvalue = [618, 505]", fillcolor="#fae8db"] ;
16 -> 24 ;
25 [label="X[3] <= 735.0\ngini = 0.48\nsamples = 1022\nvalue = [600, 422]", fillcolor="#f7dac4"] ;
24 -> 25 ;
26 [label="gini = 0.5\nsamples = 327\nvalue = [168, 159]", fillcolor="#fef8f4"] ;
25 -> 26 ;
27 [label="gini = 0.47\nsamples = 695\nvalue = [432, 263]", fillcolor="#f5ceb2"] ;
25 -> 27 ;
28 [label="X[0] <= 19.5\ngini = 0.29\nsamples = 101\nvalue = [18, 83]", fillcolor="#64b2eb"] ;
24 -> 28 ;
29 [label="gini = 0.41\nsamples = 63\nvalue = [18, 45]", fillcolor="#88c4ef"] ;
28 -> 29 ;
30 [label="gini = 0.0\nsamples = 38\nvalue = [0, 38]", fillcolor="#399de5"] ;
28 -> 30 ;
}