digraph Tree {
node [shape=box, style="filled, rounded", color="black", fontname=helvetica] ;
edge [fontname=helvetica] ;
0 [label="X[1] <= 44.5\ngini = 0.37\nsamples = 15556\nvalue = [11701, 3855]", fillcolor="#eeab7a"] ;
1 [label="X[0] <= 9.5\ngini = 0.5\nsamples = 3797\nvalue = [1818, 1979]", fillcolor="#eff7fd"] ;
0 -> 1 [labeldistance=2.5, labelangle=45, headlabel="True"] ;
2 [label="X[1] <= 39.5\ngini = 0.48\nsamples = 2226\nvalue = [1343, 883]", fillcolor="#f6d4bb"] ;
1 -> 2 ;
3 [label="X[0] <= 6.5\ngini = 0.5\nsamples = 1349\nvalue = [727, 622]", fillcolor="#fbede2"] ;
2 -> 3 ;
4 [label="gini = 0.46\nsamples = 424\nvalue = [273, 151]", fillcolor="#f3c7a7"] ;
3 -> 4 ;
5 [label="gini = 0.5\nsamples = 925\nvalue = [454, 471]", fillcolor="#f8fbfe"] ;
3 -> 5 ;
6 [label="X[0] <= 8.36\ngini = 0.42\nsamples = 877\nvalue = [616, 261]", fillcolor="#f0b68d"] ;
2 -> 6 ;
7 [label="gini = 0.38\nsamples = 648\nvalue = [483, 165]", fillcolor="#eeac7d"] ;
6 -> 7 ;
8 [label="gini = 0.49\nsamples = 229\nvalue = [133, 96]", fillcolor="#f8dcc8"] ;
6 -> 8 ;
9 [label="X[0] <= 14.5\ngini = 0.42\nsamples = 1571\nvalue = [475, 1096]", fillcolor="#8fc7f0"] ;
1 -> 9 ;
10 [label="X[1] <= 39.5\ngini = 0.46\nsamples = 1234\nvalue = [440, 794]", fillcolor="#a7d3f3"] ;
9 -> 10 ;
11 [label="gini = 0.42\nsamples = 783\nvalue = [232, 551]", fillcolor="#8cc6f0"] ;
10 -> 11 ;
12 [label="gini = 0.5\nsamples = 451\nvalue = [208, 243]", fillcolor="#e2f1fb"] ;
10 -> 12 ;
13 [label="X[1] <= 38.5\ngini = 0.19\nsamples = 337\nvalue = [35, 302]", fillcolor="#50a8e8"] ;
9 -> 13 ;
14 [label="gini = 0.09\nsamples = 221\nvalue = [10, 211]", fillcolor="#42a2e6"] ;
13 -> 14 ;
15 [label="gini = 0.34\nsamples = 116\nvalue = [25, 91]", fillcolor="#6fb8ec"] ;
13 -> 15 ;
16 [label="X[0] <= 12.5\ngini = 0.27\nsamples = 11759\nvalue = [9883, 1876]", fillcolor="#ea995f"] ;
0 -> 16 [labeldistance=2.5, labelangle=-45, headlabel="False"] ;
17 [label="X[0] <= 8.36\ngini = 0.23\nsamples = 10677\nvalue = [9284, 1393]", fillcolor="#e99457"] ;
16 -> 17 ;
18 [label="X[0] <= 6.5\ngini = 0.15\nsamples = 6031\nvalue = [5524, 507]", fillcolor="#e78d4b"] ;
17 -> 18 ;
19 [label="gini = 0.12\nsamples = 3166\nvalue = [2971, 195]", fillcolor="#e78946"] ;
18 -> 19 ;
20 [label="gini = 0.19\nsamples = 2865\nvalue = [2553, 312]", fillcolor="#e89051"] ;
18 -> 20 ;
21 [label="X[0] <= 10.5\ngini = 0.31\nsamples = 4646\nvalue = [3760, 886]", fillcolor="#eb9f68"] ;
17 -> 21 ;
22 [label="gini = 0.28\nsamples = 3091\nvalue = [2580, 511]", fillcolor="#ea9a60"] ;
21 -> 22 ;
23 [label="gini = 0.37\nsamples = 1555\nvalue = [1180, 375]", fillcolor="#eda978"] ;
21 -> 23 ;
24 [label="X[0] <= 16.5\ngini = 0.49\nsamples = 1082\nvalue = [599, 483]", fillcolor="#fae7d9"] ;
16 -> 24 ;
25 [label="X[1] <= 59.5\ngini = 0.48\nsamples = 926\nvalue = [560, 366]", fillcolor="#f6d3ba"] ;
24 -> 25 ;
26 [label="gini = 0.49\nsamples = 542\nvalue = [302, 240]", fillcolor="#fae5d6"] ;
25 -> 26 ;
27 [label="gini = 0.44\nsamples = 384\nvalue = [258, 126]", fillcolor="#f2bf9a"] ;
25 -> 27 ;
28 [label="X[0] <= 18.5\ngini = 0.38\nsamples = 156\nvalue = [39, 117]", fillcolor="#7bbeee"] ;
24 -> 28 ;
29 [label="gini = 0.46\nsamples = 98\nvalue = [35, 63]", fillcolor="#a7d3f3"] ;
28 -> 29 ;
30 [label="gini = 0.13\nsamples = 58\nvalue = [4, 54]", fillcolor="#48a4e7"] ;
28 -> 30 ;
}